digraph Tree {
node [shape=box, fontname="helvetica"] ;
edge [fontname="helvetica"] ;
0 [label="Drama <= 0.5\ngini = 0.491\nsamples = 4587\nvalue = [1985, 2602]"] ;
1 [label="annee <= 1984.5\ngini = 0.489\nsamples = 2318\nvalue = [1330, 988]"] ;
0 -> 1 [labeldistance=2.5, labelangle=45, headlabel="True"] ;
2 [label="annee <= 1976.5\ngini = 0.328\nsamples = 319\nvalue = [66, 253]"] ;
1 -> 2 ;
3 [label="budget <= 95000.0\ngini = 0.169\nsamples = 183\nvalue = [17, 166]"] ;
2 -> 3 ;
4 [label="annee <= 1958.5\ngini = 0.497\nsamples = 13\nvalue = [6, 7]"] ;
3 -> 4 ;
5 [label="gini = 0.0\nsamples = 5\nvalue = [0, 5]"] ;
4 -> 5 ;
6 [label="Thriller <= 0.5\ngini = 0.375\nsamples = 8\nvalue = [6, 2]"] ;
4 -> 6 ;
7 [label="annee <= 1973.0\ngini = 0.245\nsamples = 7\nvalue = [6, 1]"] ;
6 -> 7 ;
8 [label="gini = 0.0\nsamples = 5\nvalue = [5, 0]"] ;
7 -> 8 ;
9 [label="Horror <= 0.5\ngini = 0.5\nsamples = 2\nvalue = [1, 1]"] ;
7 -> 9 ;
10 [label="gini = 0.0\nsamples = 1\nvalue = [1, 0]"] ;
9 -> 10 ;
11 [label="gini = 0.0\nsamples = 1\nvalue = [0, 1]"] ;
9 -> 11 ;
12 [label="gini = 0.0\nsamples = 1\nvalue = [0, 1]"] ;
6 -> 12 ;
13 [label="Sci-Fi <= 0.5\ngini = 0.121\nsamples = 170\nvalue = [11, 159]"] ;
3 -> 13 ;
14 [label="budget <= 22000000.0\ngini = 0.054\nsamples = 145\nvalue = [4, 141]"] ;
13 -> 14 ;
15 [label="budget <= 11000000.0\ngini = 0.041\nsamples = 144\nvalue = [3, 141]"] ;
14 -> 15 ;
16 [label="annee <= 1965.5\ngini = 0.029\nsamples = 137\nvalue = [2, 135]"] ;
15 -> 16 ;
17 [label="gini = 0.0\nsamples = 77\nvalue = [0, 77]"] ;
16 -> 17 ;
18 [label="annee <= 1966.5\ngini = 0.064\nsamples = 60\nvalue = [2, 58]"] ;
16 -> 18 ;
19 [label="Duree <= 111.5\ngini = 0.375\nsamples = 4\nvalue = [1, 3]"] ;
18 -> 19 ;
20 [label="gini = 0.0\nsamples = 1\nvalue = [1, 0]"] ;
19 -> 20 ;
21 [label="gini = 0.0\nsamples = 3\nvalue = [0, 3]"] ;
19 -> 21 ;
22 [label="Duree <= 123.5\ngini = 0.035\nsamples = 56\nvalue = [1, 55]"] ;
18 -> 22 ;
23 [label="gini = 0.0\nsamples = 45\nvalue = [0, 45]"] ;
22 -> 23 ;
24 [label="gini = 0.165\nsamples = 11\nvalue = [1, 10]"] ;
22 -> 24 ;
25 [label="budget <= 12500000.0\ngini = 0.245\nsamples = 7\nvalue = [1, 6]"] ;
15 -> 25 ;
26 [label="Duree <= 138.5\ngini = 0.5\nsamples = 2\nvalue = [1, 1]"] ;
25 -> 26 ;
27 [label="gini = 0.0\nsamples = 1\nvalue = [1, 0]"] ;
26 -> 27 ;
28 [label="gini = 0.0\nsamples = 1\nvalue = [0, 1]"] ;
26 -> 28 ;
29 [label="gini = 0.0\nsamples = 5\nvalue = [0, 5]"] ;
25 -> 29 ;
30 [label="gini = 0.0\nsamples = 1\nvalue = [1, 0]"] ;
14 -> 30 ;
31 [label="Action <= 0.5\ngini = 0.403\nsamples = 25\nvalue = [7, 18]"] ;
13 -> 31 ;
32 [label="budget <= 265500.0\ngini = 0.208\nsamples = 17\nvalue = [2, 15]"] ;
31 -> 32 ;
33 [label="annee <= 1966.5\ngini = 0.5\nsamples = 2\nvalue = [1, 1]"] ;
32 -> 33 ;
34 [label="gini = 0.0\nsamples = 1\nvalue = [1, 0]"] ;
33 -> 34 ;
35 [label="gini = 0.0\nsamples = 1\nvalue = [0, 1]"] ;
33 -> 35 ;
36 [label="Comedy <= 0.5\ngini = 0.124\nsamples = 15\nvalue = [1, 14]"] ;
32 -> 36 ;
37 [label="gini = 0.0\nsamples = 12\nvalue = [0, 12]"] ;
36 -> 37 ;
38 [label="budget <= 3000000.0\ngini = 0.444\nsamples = 3\nvalue = [1, 2]"] ;
36 -> 38 ;
39 [label="gini = 0.0\nsamples = 2\nvalue = [0, 2]"] ;
38 -> 39 ;
40 [label="gini = 0.0\nsamples = 1\nvalue = [1, 0]"] ;
38 -> 40 ;
41 [label="annee <= 1963.0\ngini = 0.469\nsamples = 8\nvalue = [5, 3]"] ;
31 -> 41 ;
42 [label="gini = 0.0\nsamples = 2\nvalue = [0, 2]"] ;
41 -> 42 ;
43 [label="budget <= 6837500.0\ngini = 0.278\nsamples = 6\nvalue = [5, 1]"] ;
41 -> 43 ;
44 [label="gini = 0.0\nsamples = 5\nvalue = [5, 0]"] ;
43 -> 44 ;
45 [label="gini = 0.0\nsamples = 1\nvalue = [0, 1]"] ;
43 -> 45 ;
46 [label="budget <= 33250000.0\ngini = 0.461\nsamples = 136\nvalue = [49, 87]"] ;
2 -> 46 ;
47 [label="Horror <= 0.5\ngini = 0.443\nsamples = 127\nvalue = [42, 85]"] ;
46 -> 47 ;
48 [label="Sci-Fi <= 0.5\ngini = 0.362\nsamples = 80\nvalue = [19, 61]"] ;
47 -> 48 ;
49 [label="Fantasy <= 0.5\ngini = 0.419\nsamples = 57\nvalue = [17, 40]"] ;
48 -> 49 ;
50 [label="budget <= 1390000.0\ngini = 0.351\nsamples = 44\nvalue = [10, 34]"] ;
49 -> 50 ;
51 [label="gini = 0.0\nsamples = 2\nvalue = [2, 0]"] ;
50 -> 51 ;
52 [label="Action <= 0.5\ngini = 0.308\nsamples = 42\nvalue = [8, 34]"] ;
50 -> 52 ;
53 [label="War <= 0.5\ngini = 0.191\nsamples = 28\nvalue = [3, 25]"] ;
52 -> 53 ;
54 [label="gini = 0.142\nsamples = 26\nvalue = [2, 24]"] ;
53 -> 54 ;
55 [label="gini = 0.5\nsamples = 2\nvalue = [1, 1]"] ;
53 -> 55 ;
56 [label="Duree <= 102.0\ngini = 0.459\nsamples = 14\nvalue = [5, 9]"] ;
52 -> 56 ;
57 [label="gini = 0.32\nsamples = 5\nvalue = [4, 1]"] ;
56 -> 57 ;
58 [label="gini = 0.198\nsamples = 9\nvalue = [1, 8]"] ;
56 -> 58 ;
59 [label="Musical <= 0.5\ngini = 0.497\nsamples = 13\nvalue = [7, 6]"] ;
49 -> 59 ;
60 [label="annee <= 1982.5\ngini = 0.48\nsamples = 10\nvalue = [4, 6]"] ;
59 -> 60 ;
61 [label="Duree <= 130.5\ngini = 0.278\nsamples = 6\nvalue = [1, 5]"] ;
60 -> 61 ;
62 [label="gini = 0.0\nsamples = 5\nvalue = [0, 5]"] ;
61 -> 62 ;
63 [label="gini = 0.0\nsamples = 1\nvalue = [1, 0]"] ;
61 -> 63 ;
64 [label="budget <= 29500000.0\ngini = 0.375\nsamples = 4\nvalue = [3, 1]"] ;
60 -> 64 ;
65 [label="gini = 0.0\nsamples = 3\nvalue = [3, 0]"] ;
64 -> 65 ;
66 [label="gini = 0.0\nsamples = 1\nvalue = [0, 1]"] ;
64 -> 66 ;
67 [label="gini = 0.0\nsamples = 3\nvalue = [3, 0]"] ;
59 -> 67 ;
68 [label="budget <= 19000000.0\ngini = 0.159\nsamples = 23\nvalue = [2, 21]"] ;
48 -> 68 ;
69 [label="gini = 0.0\nsamples = 17\nvalue = [0, 17]"] ;
68 -> 69 ;
70 [label="budget <= 24500000.0\ngini = 0.444\nsamples = 6\nvalue = [2, 4]"] ;
68 -> 70 ;
71 [label="gini = 0.0\nsamples = 2\nvalue = [2, 0]"] ;
70 -> 71 ;
72 [label="gini = 0.0\nsamples = 4\nvalue = [0, 4]"] ;
70 -> 72 ;
73 [label="Thriller <= 0.5\ngini = 0.5\nsamples = 47\nvalue = [23, 24]"] ;
47 -> 73 ;
74 [label="Duree <= 108.0\ngini = 0.482\nsamples = 37\nvalue = [15, 22]"] ;
73 -> 74 ;
75 [label="budget <= 900000.0\ngini = 0.5\nsamples = 30\nvalue = [15, 15]"] ;
74 -> 75 ;
76 [label="budget <= 437500.0\ngini = 0.444\nsamples = 15\nvalue = [10, 5]"] ;
75 -> 76 ;
77 [label="Duree <= 87.0\ngini = 0.494\nsamples = 9\nvalue = [4, 5]"] ;
76 -> 77 ;
78 [label="gini = 0.32\nsamples = 5\nvalue = [4, 1]"] ;
77 -> 78 ;
79 [label="gini = 0.0\nsamples = 4\nvalue = [0, 4]"] ;
77 -> 79 ;
80 [label="gini = 0.0\nsamples = 6\nvalue = [6, 0]"] ;
76 -> 80 ;
81 [label="budget <= 2250000.0\ngini = 0.444\nsamples = 15\nvalue = [5, 10]"] ;
75 -> 81 ;
82 [label="gini = 0.0\nsamples = 5\nvalue = [0, 5]"] ;
81 -> 82 ;
83 [label="budget <= 2890000.0\ngini = 0.5\nsamples = 10\nvalue = [5, 5]"] ;
81 -> 83 ;
84 [label="gini = 0.0\nsamples = 2\nvalue = [2, 0]"] ;
83 -> 84 ;
85 [label="gini = 0.469\nsamples = 8\nvalue = [3, 5]"] ;
83 -> 85 ;
86 [label="gini = 0.0\nsamples = 7\nvalue = [0, 7]"] ;
74 -> 86 ;
87 [label="budget <= 775000.0\ngini = 0.32\nsamples = 10\nvalue = [8, 2]"] ;
73 -> 87 ;
88 [label="gini = 0.0\nsamples = 1\nvalue = [0, 1]"] ;
87 -> 88 ;
89 [label="Sci-Fi <= 0.5\ngini = 0.198\nsamples = 9\nvalue = [8, 1]"] ;
87 -> 89 ;
90 [label="gini = 0.0\nsamples = 7\nvalue = [7, 0]"] ;
89 -> 90 ;
91 [label="budget <= 12500000.0\ngini = 0.5\nsamples = 2\nvalue = [1, 1]"] ;
89 -> 91 ;
92 [label="gini = 0.0\nsamples = 1\nvalue = [0, 1]"] ;
91 -> 92 ;
93 [label="gini = 0.0\nsamples = 1\nvalue = [1, 0]"] ;
91 -> 93 ;
94 [label="budget <= 39500000.0\ngini = 0.346\nsamples = 9\nvalue = [7, 2]"] ;
46 -> 94 ;
95 [label="gini = 0.0\nsamples = 7\nvalue = [7, 0]"] ;
94 -> 95 ;
96 [label="gini = 0.0\nsamples = 2\nvalue = [0, 2]"] ;
94 -> 96 ;
97 [label="Duree <= 110.5\ngini = 0.465\nsamples = 1999\nvalue = [1264, 735]"] ;
1 -> 97 ;
98 [label="Animation <= 0.5\ngini = 0.418\nsamples = 1487\nvalue = [1045, 442]"] ;
97 -> 98 ;
99 [label="budget <= 6160000.0\ngini = 0.384\nsamples = 1335\nvalue = [989, 346]"] ;
98 -> 99 ;
100 [label="Horror <= 0.5\ngini = 0.494\nsamples = 222\nvalue = [123, 99]"] ;
99 -> 100 ;
101 [label="annee <= 2003.5\ngini = 0.478\nsamples = 104\nvalue = [41, 63]"] ;
100 -> 101 ;
102 [label="Sport <= 0.5\ngini = 0.343\nsamples = 41\nvalue = [9, 32]"] ;
101 -> 102 ;
103 [label="Duree <= 86.5\ngini = 0.32\nsamples = 40\nvalue = [8, 32]"] ;
102 -> 103 ;
104 [label="Action <= 0.5\ngini = 0.48\nsamples = 5\nvalue = [2, 3]"] ;
103 -> 104 ;
105 [label="gini = 0.0\nsamples = 3\nvalue = [0, 3]"] ;
104 -> 105 ;
106 [label="gini = 0.0\nsamples = 2\nvalue = [2, 0]"] ;
104 -> 106 ;
107 [label="Comedy <= 0.5\ngini = 0.284\nsamples = 35\nvalue = [6, 29]"] ;
103 -> 107 ;
108 [label="gini = 0.0\nsamples = 7\nvalue = [0, 7]"] ;
107 -> 108 ;
109 [label="gini = 0.337\nsamples = 28\nvalue = [6, 22]"] ;
107 -> 109 ;
110 [label="gini = 0.0\nsamples = 1\nvalue = [1, 0]"] ;
102 -> 110 ;
111 [label="budget <= 2950000.0\ngini = 0.5\nsamples = 63\nvalue = [32, 31]"] ;
101 -> 111 ;
112 [label="Crime <= 0.5\ngini = 0.436\nsamples = 28\nvalue = [9, 19]"] ;
111 -> 112 ;
113 [label="Comedy <= 0.5\ngini = 0.476\nsamples = 23\nvalue = [9, 14]"] ;
112 -> 113 ;
114 [label="gini = 0.219\nsamples = 8\nvalue = [1, 7]"] ;
113 -> 114 ;
115 [label="gini = 0.498\nsamples = 15\nvalue = [8, 7]"] ;
113 -> 115 ;
116 [label="gini = 0.0\nsamples = 5\nvalue = [0, 5]"] ;
112 -> 116 ;
117 [label="Duree <= 93.5\ngini = 0.451\nsamples = 35\nvalue = [23, 12]"] ;
111 -> 117 ;
118 [label="annee <= 2005.0\ngini = 0.124\nsamples = 15\nvalue = [14, 1]"] ;
117 -> 118 ;
119 [label="gini = 0.5\nsamples = 2\nvalue = [1, 1]"] ;
118 -> 119 ;
120 [label="gini = 0.0\nsamples = 13\nvalue = [13, 0]"] ;
118 -> 120 ;
121 [label="Action <= 0.5\ngini = 0.495\nsamples = 20\nvalue = [9, 11]"] ;
117 -> 121 ;
122 [label="gini = 0.391\nsamples = 15\nvalue = [4, 11]"] ;
121 -> 122 ;
123 [label="gini = 0.0\nsamples = 5\nvalue = [5, 0]"] ;
121 -> 123 ;
124 [label="annee <= 2008.5\ngini = 0.424\nsamples = 118\nvalue = [82, 36]"] ;
100 -> 124 ;
125 [label="Thriller <= 0.5\ngini = 0.486\nsamples = 72\nvalue = [42, 30]"] ;
124 -> 125 ;
126 [label="Duree <= 101.5\ngini = 0.5\nsamples = 49\nvalue = [24, 25]"] ;
125 -> 126 ;
127 [label="annee <= 1987.5\ngini = 0.485\nsamples = 41\nvalue = [24, 17]"] ;
126 -> 127 ;
128 [label="gini = 0.444\nsamples = 12\nvalue = [4, 8]"] ;
127 -> 128 ;
129 [label="gini = 0.428\nsamples = 29\nvalue = [20, 9]"] ;
127 -> 129 ;
130 [label="gini = 0.0\nsamples = 8\nvalue = [0, 8]"] ;
126 -> 130 ;
131 [label="annee <= 2006.5\ngini = 0.34\nsamples = 23\nvalue = [18, 5]"] ;
125 -> 131 ;
132 [label="Crime <= 0.5\ngini = 0.198\nsamples = 18\nvalue = [16, 2]"] ;
131 -> 132 ;
133 [label="gini = 0.111\nsamples = 17\nvalue = [16, 1]"] ;
132 -> 133 ;
134 [label="gini = 0.0\nsamples = 1\nvalue = [0, 1]"] ;
132 -> 134 ;
135 [label="Duree <= 97.5\ngini = 0.48\nsamples = 5\nvalue = [2, 3]"] ;
131 -> 135 ;
136 [label="gini = 0.0\nsamples = 3\nvalue = [0, 3]"] ;
135 -> 136 ;
137 [label="gini = 0.0\nsamples = 2\nvalue = [2, 0]"] ;
135 -> 137 ;
138 [label="Duree <= 105.5\ngini = 0.227\nsamples = 46\nvalue = [40, 6]"] ;
124 -> 138 ;
139 [label="Fantasy <= 0.5\ngini = 0.169\nsamples = 43\nvalue = [39, 4]"] ;
138 -> 139 ;
140 [label="Action <= 0.5\ngini = 0.133\nsamples = 42\nvalue = [39, 3]"] ;
139 -> 140 ;
141 [label="gini = 0.095\nsamples = 40\nvalue = [38, 2]"] ;
140 -> 141 ;
142 [label="gini = 0.5\nsamples = 2\nvalue = [1, 1]"] ;
140 -> 142 ;
143 [label="gini = 0.0\nsamples = 1\nvalue = [0, 1]"] ;
139 -> 143 ;
144 [label="annee <= 2011.5\ngini = 0.444\nsamples = 3\nvalue = [1, 2]"] ;
138 -> 144 ;
145 [label="gini = 0.0\nsamples = 1\nvalue = [1, 0]"] ;
144 -> 145 ;
146 [label="gini = 0.0\nsamples = 2\nvalue = [0, 2]"] ;
144 -> 146 ;
147 [label="annee <= 1991.5\ngini = 0.345\nsamples = 1113\nvalue = [866, 247]"] ;
99 -> 147 ;
148 [label="budget <= 27400000.0\ngini = 0.478\nsamples = 124\nvalue = [75, 49]"] ;
147 -> 148 ;
149 [label="budget <= 8750000.0\ngini = 0.494\nsamples = 99\nvalue = [55, 44]"] ;
148 -> 149 ;
150 [label="Duree <= 107.0\ngini = 0.32\nsamples = 15\nvalue = [12, 3]"] ;
149 -> 150 ;
151 [label="Fantasy <= 0.5\ngini = 0.142\nsamples = 13\nvalue = [12, 1]"] ;
150 -> 151 ;
152 [label="gini = 0.0\nsamples = 11\nvalue = [11, 0]"] ;
151 -> 152 ;
153 [label="gini = 0.5\nsamples = 2\nvalue = [1, 1]"] ;
151 -> 153 ;
154 [label="gini = 0.0\nsamples = 2\nvalue = [0, 2]"] ;
150 -> 154 ;
155 [label="budget <= 25500000.0\ngini = 0.5\nsamples = 84\nvalue = [43, 41]"] ;
149 -> 155 ;
156 [label="budget <= 16950000.0\ngini = 0.498\nsamples = 81\nvalue = [43, 38]"] ;
155 -> 156 ;
157 [label="gini = 0.494\nsamples = 47\nvalue = [21, 26]"] ;
156 -> 157 ;
158 [label="gini = 0.457\nsamples = 34\nvalue = [22, 12]"] ;
156 -> 158 ;
159 [label="gini = 0.0\nsamples = 3\nvalue = [0, 3]"] ;
155 -> 159 ;
160 [label="annee <= 1990.5\ngini = 0.32\nsamples = 25\nvalue = [20, 5]"] ;
148 -> 160 ;
161 [label="Duree <= 107.5\ngini = 0.117\nsamples = 16\nvalue = [15, 1]"] ;
160 -> 161 ;
162 [label="gini = 0.0\nsamples = 13\nvalue = [13, 0]"] ;
161 -> 162 ;
163 [label="budget <= 38500000.0\ngini = 0.444\nsamples = 3\nvalue = [2, 1]"] ;
161 -> 163 ;
164 [label="gini = 0.0\nsamples = 2\nvalue = [2, 0]"] ;
163 -> 164 ;
165 [label="gini = 0.0\nsamples = 1\nvalue = [0, 1]"] ;
163 -> 165 ;
166 [label="Duree <= 99.5\ngini = 0.494\nsamples = 9\nvalue = [5, 4]"] ;
160 -> 166 ;
167 [label="Duree <= 95.0\ngini = 0.375\nsamples = 4\nvalue = [1, 3]"] ;
166 -> 167 ;
168 [label="gini = 0.0\nsamples = 1\nvalue = [1, 0]"] ;
167 -> 168 ;
169 [label="gini = 0.0\nsamples = 3\nvalue = [0, 3]"] ;
167 -> 169 ;
170 [label="Duree <= 109.5\ngini = 0.32\nsamples = 5\nvalue = [4, 1]"] ;
166 -> 170 ;
171 [label="gini = 0.0\nsamples = 4\nvalue = [4, 0]"] ;
170 -> 171 ;
172 [label="gini = 0.0\nsamples = 1\nvalue = [0, 1]"] ;
170 -> 172 ;
173 [label="Duree <= 101.5\ngini = 0.32\nsamples = 989\nvalue = [791, 198]"] ;
147 -> 173 ;
174 [label="budget <= 33950000.0\ngini = 0.28\nsamples = 702\nvalue = [584, 118]"] ;
173 -> 174 ;
175 [label="Documentary <= 0.5\ngini = 0.334\nsamples = 453\nvalue = [357, 96]"] ;
174 -> 175 ;
176 [label="annee <= 1999.5\ngini = 0.326\nsamples = 448\nvalue = [356, 92]"] ;
175 -> 176 ;
177 [label="gini = 0.421\nsamples = 116\nvalue = [81, 35]"] ;
176 -> 177 ;
178 [label="gini = 0.284\nsamples = 332\nvalue = [275, 57]"] ;
176 -> 178 ;
179 [label="annee <= 2011.0\ngini = 0.32\nsamples = 5\nvalue = [1, 4]"] ;
175 -> 179 ;
180 [label="gini = 0.0\nsamples = 4\nvalue = [0, 4]"] ;
179 -> 180 ;
181 [label="gini = 0.0\nsamples = 1\nvalue = [1, 0]"] ;
179 -> 181 ;
182 [label="budget <= 177500000.0\ngini = 0.161\nsamples = 249\nvalue = [227, 22]"] ;
174 -> 182 ;
183 [label="Duree <= 99.5\ngini = 0.155\nsamples = 248\nvalue = [227, 21]"] ;
182 -> 183 ;
184 [label="gini = 0.188\nsamples = 200\nvalue = [179, 21]"] ;
183 -> 184 ;
185 [label="gini = 0.0\nsamples = 48\nvalue = [48, 0]"] ;
183 -> 185 ;
186 [label="gini = 0.0\nsamples = 1\nvalue = [0, 1]"] ;
182 -> 186 ;
187 [label="budget <= 6950000.0\ngini = 0.402\nsamples = 287\nvalue = [207, 80]"] ;
173 -> 187 ;
188 [label="gini = 0.0\nsamples = 2\nvalue = [0, 2]"] ;
187 -> 188 ;
189 [label="budget <= 205000000.0\ngini = 0.398\nsamples = 285\nvalue = [207, 78]"] ;
187 -> 189 ;
190 [label="Crime <= 0.5\ngini = 0.393\nsamples = 283\nvalue = [207, 76]"] ;
189 -> 190 ;
191 [label="gini = 0.366\nsamples = 224\nvalue = [170, 54]"] ;
190 -> 191 ;
192 [label="gini = 0.468\nsamples = 59\nvalue = [37, 22]"] ;
190 -> 192 ;
193 [label="gini = 0.0\nsamples = 2\nvalue = [0, 2]"] ;
189 -> 193 ;
194 [label="budget <= 19000000.0\ngini = 0.465\nsamples = 152\nvalue = [56, 96]"] ;
98 -> 194 ;
195 [label="Duree <= 95.5\ngini = 0.142\nsamples = 13\nvalue = [1, 12]"] ;
194 -> 195 ;
196 [label="gini = 0.0\nsamples = 10\nvalue = [0, 10]"] ;
195 -> 196 ;
197 [label="Duree <= 99.0\ngini = 0.444\nsamples = 3\nvalue = [1, 2]"] ;
195 -> 197 ;
198 [label="gini = 0.0\nsamples = 1\nvalue = [1, 0]"] ;
197 -> 198 ;
199 [label="gini = 0.0\nsamples = 2\nvalue = [0, 2]"] ;
197 -> 199 ;
200 [label="budget <= 82500000.0\ngini = 0.478\nsamples = 139\nvalue = [55, 84]"] ;
194 -> 200 ;
201 [label="Family <= 0.5\ngini = 0.5\nsamples = 74\nvalue = [37, 37]"] ;
200 -> 201 ;
202 [label="annee <= 2002.5\ngini = 0.32\nsamples = 10\nvalue = [2, 8]"] ;
201 -> 202 ;
203 [label="Musical <= 0.5\ngini = 0.444\nsamples = 3\nvalue = [2, 1]"] ;
202 -> 203 ;
204 [label="gini = 0.0\nsamples = 2\nvalue = [2, 0]"] ;
203 -> 204 ;
205 [label="gini = 0.0\nsamples = 1\nvalue = [0, 1]"] ;
203 -> 205 ;
206 [label="gini = 0.0\nsamples = 7\nvalue = [0, 7]"] ;
202 -> 206 ;
207 [label="annee <= 2000.5\ngini = 0.496\nsamples = 64\nvalue = [35, 29]"] ;
201 -> 207 ;
208 [label="Fantasy <= 0.5\ngini = 0.457\nsamples = 17\nvalue = [6, 11]"] ;
207 -> 208 ;
209 [label="gini = 0.0\nsamples = 4\nvalue = [0, 4]"] ;
208 -> 209 ;
210 [label="annee <= 1993.0\ngini = 0.497\nsamples = 13\nvalue = [6, 7]"] ;
208 -> 210 ;
211 [label="gini = 0.32\nsamples = 5\nvalue = [1, 4]"] ;
210 -> 211 ;
212 [label="gini = 0.469\nsamples = 8\nvalue = [5, 3]"] ;
210 -> 212 ;
213 [label="Duree <= 95.5\ngini = 0.473\nsamples = 47\nvalue = [29, 18]"] ;
207 -> 213 ;
214 [label="Mystery <= 0.5\ngini = 0.444\nsamples = 42\nvalue = [28, 14]"] ;
213 -> 214 ;
215 [label="gini = 0.42\nsamples = 40\nvalue = [28, 12]"] ;
214 -> 215 ;
216 [label="gini = 0.0\nsamples = 2\nvalue = [0, 2]"] ;
214 -> 216 ;
217 [label="Duree <= 103.5\ngini = 0.32\nsamples = 5\nvalue = [1, 4]"] ;
213 -> 217 ;
218 [label="gini = 0.0\nsamples = 4\nvalue = [0, 4]"] ;
217 -> 218 ;
219 [label="gini = 0.0\nsamples = 1\nvalue = [1, 0]"] ;
217 -> 219 ;
220 [label="Duree <= 84.5\ngini = 0.4\nsamples = 65\nvalue = [18, 47]"] ;
200 -> 220 ;
221 [label="annee <= 2001.0\ngini = 0.375\nsamples = 8\nvalue = [6, 2]"] ;
220 -> 221 ;
222 [label="Sci-Fi <= 0.5\ngini = 0.444\nsamples = 3\nvalue = [1, 2]"] ;
221 -> 222 ;
223 [label="gini = 0.0\nsamples = 2\nvalue = [0, 2]"] ;
222 -> 223 ;
224 [label="gini = 0.0\nsamples = 1\nvalue = [1, 0]"] ;
222 -> 224 ;
225 [label="gini = 0.0\nsamples = 5\nvalue = [5, 0]"] ;
221 -> 225 ;
226 [label="Duree <= 104.5\ngini = 0.332\nsamples = 57\nvalue = [12, 45]"] ;
220 -> 226 ;
227 [label="budget <= 101500000.0\ngini = 0.269\nsamples = 50\nvalue = [8, 42]"] ;
226 -> 227 ;
228 [label="gini = 0.0\nsamples = 11\nvalue = [0, 11]"] ;
227 -> 228 ;
229 [label="budget <= 112500000.0\ngini = 0.326\nsamples = 39\nvalue = [8, 31]"] ;
227 -> 229 ;
230 [label="gini = 0.444\nsamples = 3\nvalue = [2, 1]"] ;
229 -> 230 ;
231 [label="gini = 0.278\nsamples = 36\nvalue = [6, 30]"] ;
229 -> 231 ;
232 [label="Duree <= 106.5\ngini = 0.49\nsamples = 7\nvalue = [4, 3]"] ;
226 -> 232 ;
233 [label="gini = 0.0\nsamples = 3\nvalue = [3, 0]"] ;
232 -> 233 ;
234 [label="Duree <= 107.5\ngini = 0.375\nsamples = 4\nvalue = [1, 3]"] ;
232 -> 234 ;
235 [label="gini = 0.0\nsamples = 3\nvalue = [0, 3]"] ;
234 -> 235 ;
236 [label="gini = 0.0\nsamples = 1\nvalue = [1, 0]"] ;
234 -> 236 ;
237 [label="Duree <= 134.5\ngini = 0.49\nsamples = 512\nvalue = [219, 293]"] ;
97 -> 237 ;
238 [label="annee <= 1992.5\ngini = 0.5\nsamples = 398\nvalue = [193, 205]"] ;
237 -> 238 ;
239 [label="Family <= 0.5\ngini = 0.355\nsamples = 39\nvalue = [9, 30]"] ;
238 -> 239 ;
240 [label="Duree <= 115.5\ngini = 0.307\nsamples = 37\nvalue = [7, 30]"] ;
239 -> 240 ;
241 [label="annee <= 1987.5\ngini = 0.5\nsamples = 8\nvalue = [4, 4]"] ;
240 -> 241 ;
242 [label="gini = 0.0\nsamples = 2\nvalue = [0, 2]"] ;
241 -> 242 ;
243 [label="budget <= 26500000.0\ngini = 0.444\nsamples = 6\nvalue = [4, 2]"] ;
241 -> 243 ;
244 [label="gini = 0.0\nsamples = 3\nvalue = [3, 0]"] ;
243 -> 244 ;
245 [label="Action <= 0.5\ngini = 0.444\nsamples = 3\nvalue = [1, 2]"] ;
243 -> 245 ;
246 [label="gini = 0.0\nsamples = 1\nvalue = [0, 1]"] ;
245 -> 246 ;
247 [label="gini = 0.5\nsamples = 2\nvalue = [1, 1]"] ;
245 -> 247 ;
248 [label="Horror <= 0.5\ngini = 0.185\nsamples = 29\nvalue = [3, 26]"] ;
240 -> 248 ;
249 [label="annee <= 1985.5\ngini = 0.071\nsamples = 27\nvalue = [1, 26]"] ;
248 -> 249 ;
250 [label="Action <= 0.5\ngini = 0.5\nsamples = 2\nvalue = [1, 1]"] ;
249 -> 250 ;
251 [label="gini = 0.0\nsamples = 1\nvalue = [0, 1]"] ;
250 -> 251 ;
252 [label="gini = 0.0\nsamples = 1\nvalue = [1, 0]"] ;
250 -> 252 ;
253 [label="gini = 0.0\nsamples = 25\nvalue = [0, 25]"] ;
249 -> 253 ;
254 [label="gini = 0.0\nsamples = 2\nvalue = [2, 0]"] ;
248 -> 254 ;
255 [label="gini = 0.0\nsamples = 2\nvalue = [2, 0]"] ;
239 -> 255 ;
256 [label="budget <= 21170000.0\ngini = 0.5\nsamples = 359\nvalue = [184, 175]"] ;
238 -> 256 ;
257 [label="Horror <= 0.5\ngini = 0.448\nsamples = 56\nvalue = [19, 37]"] ;
256 -> 257 ;
258 [label="Action <= 0.5\ngini = 0.381\nsamples = 43\nvalue = [11, 32]"] ;
257 -> 258 ;
259 [label="budget <= 19105000.0\ngini = 0.313\nsamples = 36\nvalue = [7, 29]"] ;
258 -> 259 ;
260 [label="Comedy <= 0.5\ngini = 0.257\nsamples = 33\nvalue = [5, 28]"] ;
259 -> 260 ;
261 [label="gini = 0.391\nsamples = 15\nvalue = [4, 11]"] ;
260 -> 261 ;
262 [label="gini = 0.105\nsamples = 18\nvalue = [1, 17]"] ;
260 -> 262 ;
263 [label="annee <= 2009.0\ngini = 0.444\nsamples = 3\nvalue = [2, 1]"] ;
259 -> 263 ;
264 [label="gini = 0.0\nsamples = 1\nvalue = [0, 1]"] ;
263 -> 264 ;
265 [label="gini = 0.0\nsamples = 2\nvalue = [2, 0]"] ;
263 -> 265 ;
266 [label="Duree <= 121.5\ngini = 0.49\nsamples = 7\nvalue = [4, 3]"] ;
258 -> 266 ;
267 [label="annee <= 2011.0\ngini = 0.375\nsamples = 4\nvalue = [1, 3]"] ;
266 -> 267 ;
268 [label="gini = 0.0\nsamples = 3\nvalue = [0, 3]"] ;
267 -> 268 ;
269 [label="gini = 0.0\nsamples = 1\nvalue = [1, 0]"] ;
267 -> 269 ;
270 [label="gini = 0.0\nsamples = 3\nvalue = [3, 0]"] ;
266 -> 270 ;
271 [label="budget <= 16500000.0\ngini = 0.473\nsamples = 13\nvalue = [8, 5]"] ;
257 -> 271 ;
272 [label="Duree <= 116.5\ngini = 0.397\nsamples = 11\nvalue = [8, 3]"] ;
271 -> 272 ;
273 [label="annee <= 2004.5\ngini = 0.5\nsamples = 6\nvalue = [3, 3]"] ;
272 -> 273 ;
274 [label="gini = 0.0\nsamples = 2\nvalue = [0, 2]"] ;
273 -> 274 ;
275 [label="gini = 0.375\nsamples = 4\nvalue = [3, 1]"] ;
273 -> 275 ;
276 [label="gini = 0.0\nsamples = 5\nvalue = [5, 0]"] ;
272 -> 276 ;
277 [label="gini = 0.0\nsamples = 2\nvalue = [0, 2]"] ;
271 -> 277 ;
278 [label="annee <= 2005.5\ngini = 0.496\nsamples = 303\nvalue = [165, 138]"] ;
256 -> 278 ;
279 [label="Comedy <= 0.5\ngini = 0.465\nsamples = 147\nvalue = [93, 54]"] ;
278 -> 279 ;
280 [label="budget <= 49000000.0\ngini = 0.489\nsamples = 101\nvalue = [58, 43]"] ;
279 -> 280 ;
281 [label="annee <= 2000.5\ngini = 0.488\nsamples = 26\nvalue = [11, 15]"] ;
280 -> 281 ;
282 [label="gini = 0.494\nsamples = 18\nvalue = [10, 8]"] ;
281 -> 282 ;
283 [label="gini = 0.219\nsamples = 8\nvalue = [1, 7]"] ;
281 -> 283 ;
284 [label="War <= 0.5\ngini = 0.468\nsamples = 75\nvalue = [47, 28]"] ;
280 -> 284 ;
285 [label="gini = 0.459\nsamples = 73\nvalue = [47, 26]"] ;
284 -> 285 ;
286 [label="gini = 0.0\nsamples = 2\nvalue = [0, 2]"] ;
284 -> 286 ;
287 [label="annee <= 1998.5\ngini = 0.364\nsamples = 46\nvalue = [35, 11]"] ;
279 -> 287 ;
288 [label="annee <= 1993.5\ngini = 0.5\nsamples = 12\nvalue = [6, 6]"] ;
287 -> 288 ;
289 [label="gini = 0.0\nsamples = 2\nvalue = [2, 0]"] ;
288 -> 289 ;
290 [label="gini = 0.48\nsamples = 10\nvalue = [4, 6]"] ;
288 -> 290 ;
291 [label="Duree <= 127.5\ngini = 0.251\nsamples = 34\nvalue = [29, 5]"] ;
287 -> 291 ;
292 [label="gini = 0.175\nsamples = 31\nvalue = [28, 3]"] ;
291 -> 292 ;
293 [label="gini = 0.444\nsamples = 3\nvalue = [1, 2]"] ;
291 -> 293 ;
294 [label="Action <= 0.5\ngini = 0.497\nsamples = 156\nvalue = [72, 84]"] ;
278 -> 294 ;
295 [label="annee <= 2007.5\ngini = 0.465\nsamples = 57\nvalue = [36, 21]"] ;
294 -> 295 ;
296 [label="Duree <= 116.5\ngini = 0.444\nsamples = 12\nvalue = [4, 8]"] ;
295 -> 296 ;
297 [label="gini = 0.5\nsamples = 8\nvalue = [4, 4]"] ;
296 -> 297 ;
298 [label="gini = 0.0\nsamples = 4\nvalue = [0, 4]"] ;
296 -> 298 ;
299 [label="Duree <= 119.5\ngini = 0.411\nsamples = 45\nvalue = [32, 13]"] ;
295 -> 299 ;
300 [label="gini = 0.285\nsamples = 29\nvalue = [24, 5]"] ;
299 -> 300 ;
301 [label="gini = 0.5\nsamples = 16\nvalue = [8, 8]"] ;
299 -> 301 ;
302 [label="Romance <= 0.5\ngini = 0.463\nsamples = 99\nvalue = [36, 63]"] ;
294 -> 302 ;
303 [label="Thriller <= 0.5\ngini = 0.447\nsamples = 92\nvalue = [31, 61]"] ;
302 -> 303 ;
304 [label="gini = 0.363\nsamples = 42\nvalue = [10, 32]"] ;
303 -> 304 ;
305 [label="gini = 0.487\nsamples = 50\nvalue = [21, 29]"] ;
303 -> 305 ;
306 [label="Fantasy <= 0.5\ngini = 0.408\nsamples = 7\nvalue = [5, 2]"] ;
302 -> 306 ;
307 [label="gini = 0.0\nsamples = 4\nvalue = [4, 0]"] ;
306 -> 307 ;
308 [label="gini = 0.444\nsamples = 3\nvalue = [1, 2]"] ;
306 -> 308 ;
309 [label="Sci-Fi <= 0.5\ngini = 0.352\nsamples = 114\nvalue = [26, 88]"] ;
237 -> 309 ;
310 [label="Sport <= 0.5\ngini = 0.248\nsamples = 69\nvalue = [10, 59]"] ;
309 -> 310 ;
311 [label="Duree <= 156.5\ngini = 0.23\nsamples = 68\nvalue = [9, 59]"] ;
310 -> 311 ;
312 [label="Duree <= 145.0\ngini = 0.305\nsamples = 48\nvalue = [9, 39]"] ;
311 -> 312 ;
313 [label="annee <= 2012.5\ngini = 0.128\nsamples = 29\nvalue = [2, 27]"] ;
312 -> 313 ;
314 [label="gini = 0.0\nsamples = 26\nvalue = [0, 26]"] ;
313 -> 314 ;
315 [label="Comedy <= 0.5\ngini = 0.444\nsamples = 3\nvalue = [2, 1]"] ;
313 -> 315 ;
316 [label="gini = 0.0\nsamples = 1\nvalue = [0, 1]"] ;
315 -> 316 ;
317 [label="gini = 0.0\nsamples = 2\nvalue = [2, 0]"] ;
315 -> 317 ;
318 [label="Western <= 0.5\ngini = 0.465\nsamples = 19\nvalue = [7, 12]"] ;
312 -> 318 ;
319 [label="annee <= 2007.5\ngini = 0.415\nsamples = 17\nvalue = [5, 12]"] ;
318 -> 319 ;
320 [label="gini = 0.5\nsamples = 10\nvalue = [5, 5]"] ;
319 -> 320 ;
321 [label="gini = 0.0\nsamples = 7\nvalue = [0, 7]"] ;
319 -> 321 ;
322 [label="gini = 0.0\nsamples = 2\nvalue = [2, 0]"] ;
318 -> 322 ;
323 [label="gini = 0.0\nsamples = 20\nvalue = [0, 20]"] ;
311 -> 323 ;
324 [label="gini = 0.0\nsamples = 1\nvalue = [1, 0]"] ;
310 -> 324 ;
325 [label="budget <= 65500000.0\ngini = 0.458\nsamples = 45\nvalue = [16, 29]"] ;
309 -> 325 ;
326 [label="annee <= 1986.5\ngini = 0.486\nsamples = 12\nvalue = [7, 5]"] ;
325 -> 326 ;
327 [label="gini = 0.0\nsamples = 2\nvalue = [0, 2]"] ;
326 -> 327 ;
328 [label="budget <= 9250000.0\ngini = 0.42\nsamples = 10\nvalue = [7, 3]"] ;
326 -> 328 ;
329 [label="gini = 0.0\nsamples = 1\nvalue = [0, 1]"] ;
328 -> 329 ;
330 [label="Duree <= 171.0\ngini = 0.346\nsamples = 9\nvalue = [7, 2]"] ;
328 -> 330 ;
331 [label="budget <= 61500000.0\ngini = 0.219\nsamples = 8\nvalue = [7, 1]"] ;
330 -> 331 ;
332 [label="gini = 0.0\nsamples = 6\nvalue = [6, 0]"] ;
331 -> 332 ;
333 [label="gini = 0.5\nsamples = 2\nvalue = [1, 1]"] ;
331 -> 333 ;
334 [label="gini = 0.0\nsamples = 1\nvalue = [0, 1]"] ;
330 -> 334 ;
335 [label="budget <= 172500000.0\ngini = 0.397\nsamples = 33\nvalue = [9, 24]"] ;
325 -> 335 ;
336 [label="Duree <= 139.5\ngini = 0.255\nsamples = 20\nvalue = [3, 17]"] ;
335 -> 336 ;
337 [label="annee <= 2004.0\ngini = 0.42\nsamples = 10\nvalue = [3, 7]"] ;
336 -> 337 ;
338 [label="annee <= 1997.5\ngini = 0.48\nsamples = 5\nvalue = [3, 2]"] ;
337 -> 338 ;
339 [label="gini = 0.0\nsamples = 1\nvalue = [0, 1]"] ;
338 -> 339 ;
340 [label="gini = 0.375\nsamples = 4\nvalue = [3, 1]"] ;
338 -> 340 ;
341 [label="gini = 0.0\nsamples = 5\nvalue = [0, 5]"] ;
337 -> 341 ;
342 [label="gini = 0.0\nsamples = 10\nvalue = [0, 10]"] ;
336 -> 342 ;
343 [label="annee <= 2011.5\ngini = 0.497\nsamples = 13\nvalue = [6, 7]"] ;
335 -> 343 ;
344 [label="Duree <= 177.0\ngini = 0.278\nsamples = 6\nvalue = [5, 1]"] ;
343 -> 344 ;
345 [label="gini = 0.0\nsamples = 5\nvalue = [5, 0]"] ;
344 -> 345 ;
346 [label="gini = 0.0\nsamples = 1\nvalue = [0, 1]"] ;
344 -> 346 ;
347 [label="Duree <= 157.0\ngini = 0.245\nsamples = 7\nvalue = [1, 6]"] ;
343 -> 347 ;
348 [label="gini = 0.0\nsamples = 3\nvalue = [0, 3]"] ;
347 -> 348 ;
349 [label="Duree <= 169.0\ngini = 0.375\nsamples = 4\nvalue = [1, 3]"] ;
347 -> 349 ;
350 [label="gini = 0.0\nsamples = 1\nvalue = [1, 0]"] ;
349 -> 350 ;
351 [label="gini = 0.0\nsamples = 3\nvalue = [0, 3]"] ;
349 -> 351 ;
352 [label="budget <= 15660000.0\ngini = 0.411\nsamples = 2269\nvalue = [655, 1614]"] ;
0 -> 352 [labeldistance=2.5, labelangle=-45, headlabel="False"] ;
353 [label="Duree <= 104.5\ngini = 0.283\nsamples = 1113\nvalue = [190, 923]"] ;
352 -> 353 ;
354 [label="budget <= 2750000.0\ngini = 0.387\nsamples = 480\nvalue = [126, 354]"] ;
353 -> 354 ;
355 [label="annee <= 2004.5\ngini = 0.209\nsamples = 177\nvalue = [21, 156]"] ;
354 -> 355 ;
356 [label="Music <= 0.5\ngini = 0.069\nsamples = 112\nvalue = [4, 108]"] ;
355 -> 356 ;
357 [label="Biography <= 0.5\ngini = 0.053\nsamples = 110\nvalue = [3, 107]"] ;
356 -> 357 ;
358 [label="budget <= 1140000.0\ngini = 0.037\nsamples = 106\nvalue = [2, 104]"] ;
357 -> 358 ;
359 [label="gini = 0.0\nsamples = 72\nvalue = [0, 72]"] ;
358 -> 359 ;
360 [label="budget <= 1225000.0\ngini = 0.111\nsamples = 34\nvalue = [2, 32]"] ;
358 -> 360 ;
361 [label="annee <= 1995.5\ngini = 0.444\nsamples = 3\nvalue = [1, 2]"] ;
360 -> 361 ;
362 [label="gini = 0.0\nsamples = 2\nvalue = [0, 2]"] ;
361 -> 362 ;
363 [label="gini = 0.0\nsamples = 1\nvalue = [1, 0]"] ;
361 -> 363 ;
364 [label="Thriller <= 0.5\ngini = 0.062\nsamples = 31\nvalue = [1, 30]"] ;
360 -> 364 ;
365 [label="gini = 0.0\nsamples = 25\nvalue = [0, 25]"] ;
364 -> 365 ;
366 [label="gini = 0.278\nsamples = 6\nvalue = [1, 5]"] ;
364 -> 366 ;
367 [label="Horror <= 0.5\ngini = 0.375\nsamples = 4\nvalue = [1, 3]"] ;
357 -> 367 ;
368 [label="gini = 0.0\nsamples = 3\nvalue = [0, 3]"] ;
367 -> 368 ;
369 [label="gini = 0.0\nsamples = 1\nvalue = [1, 0]"] ;
367 -> 369 ;
370 [label="budget <= 1415000.0\ngini = 0.5\nsamples = 2\nvalue = [1, 1]"] ;
356 -> 370 ;
371 [label="gini = 0.0\nsamples = 1\nvalue = [0, 1]"] ;
370 -> 371 ;
372 [label="gini = 0.0\nsamples = 1\nvalue = [1, 0]"] ;
370 -> 372 ;
373 [label="Horror <= 0.5\ngini = 0.386\nsamples = 65\nvalue = [17, 48]"] ;
355 -> 373 ;
374 [label="Action <= 0.5\ngini = 0.306\nsamples = 53\nvalue = [10, 43]"] ;
373 -> 374 ;
375 [label="Duree <= 78.5\ngini = 0.286\nsamples = 52\nvalue = [9, 43]"] ;
374 -> 375 ;
376 [label="gini = 0.0\nsamples = 1\nvalue = [1, 0]"] ;
375 -> 376 ;
377 [label="Thriller <= 0.5\ngini = 0.265\nsamples = 51\nvalue = [8, 43]"] ;
375 -> 377 ;
378 [label="Duree <= 89.5\ngini = 0.206\nsamples = 43\nvalue = [5, 38]"] ;
377 -> 378 ;
379 [label="gini = 0.0\nsamples = 11\nvalue = [0, 11]"] ;
378 -> 379 ;
380 [label="gini = 0.264\nsamples = 32\nvalue = [5, 27]"] ;
378 -> 380 ;
381 [label="budget <= 925000.0\ngini = 0.469\nsamples = 8\nvalue = [3, 5]"] ;
377 -> 381 ;
382 [label="gini = 0.0\nsamples = 3\nvalue = [3, 0]"] ;
381 -> 382 ;
383 [label="gini = 0.0\nsamples = 5\nvalue = [0, 5]"] ;
381 -> 383 ;
384 [label="gini = 0.0\nsamples = 1\nvalue = [1, 0]"] ;
374 -> 384 ;
385 [label="Duree <= 100.5\ngini = 0.486\nsamples = 12\nvalue = [7, 5]"] ;
373 -> 385 ;
386 [label="budget <= 1825000.0\ngini = 0.42\nsamples = 10\nvalue = [7, 3]"] ;
385 -> 386 ;
387 [label="Comedy <= 0.5\ngini = 0.245\nsamples = 7\nvalue = [6, 1]"] ;
386 -> 387 ;
388 [label="gini = 0.0\nsamples = 6\nvalue = [6, 0]"] ;
387 -> 388 ;
389 [label="gini = 0.0\nsamples = 1\nvalue = [0, 1]"] ;
387 -> 389 ;
390 [label="budget <= 2200000.0\ngini = 0.444\nsamples = 3\nvalue = [1, 2]"] ;
386 -> 390 ;
391 [label="gini = 0.0\nsamples = 2\nvalue = [0, 2]"] ;
390 -> 391 ;
392 [label="gini = 0.0\nsamples = 1\nvalue = [1, 0]"] ;
390 -> 392 ;
393 [label="gini = 0.0\nsamples = 2\nvalue = [0, 2]"] ;
385 -> 393 ;
394 [label="Thriller <= 0.5\ngini = 0.453\nsamples = 303\nvalue = [105, 198]"] ;
354 -> 394 ;
395 [label="Animation <= 0.5\ngini = 0.411\nsamples = 218\nvalue = [63, 155]"] ;
394 -> 395 ;
396 [label="Adventure <= 0.5\ngini = 0.42\nsamples = 210\nvalue = [63, 147]"] ;
395 -> 396 ;
397 [label="annee <= 2009.5\ngini = 0.408\nsamples = 196\nvalue = [56, 140]"] ;
396 -> 397 ;
398 [label="Comedy <= 0.5\ngini = 0.366\nsamples = 137\nvalue = [33, 104]"] ;
397 -> 398 ;
399 [label="Music <= 0.5\ngini = 0.278\nsamples = 66\nvalue = [11, 55]"] ;
398 -> 399 ;
400 [label="gini = 0.231\nsamples = 60\nvalue = [8, 52]"] ;
399 -> 400 ;
401 [label="gini = 0.5\nsamples = 6\nvalue = [3, 3]"] ;
399 -> 401 ;
402 [label="Crime <= 0.5\ngini = 0.428\nsamples = 71\nvalue = [22, 49]"] ;
398 -> 402 ;
403 [label="gini = 0.461\nsamples = 61\nvalue = [22, 39]"] ;
402 -> 403 ;
404 [label="gini = 0.0\nsamples = 10\nvalue = [0, 10]"] ;
402 -> 404 ;
405 [label="Duree <= 97.5\ngini = 0.476\nsamples = 59\nvalue = [23, 36]"] ;
397 -> 405 ;
406 [label="Duree <= 96.5\ngini = 0.497\nsamples = 28\nvalue = [15, 13]"] ;
405 -> 406 ;
407 [label="gini = 0.496\nsamples = 22\nvalue = [10, 12]"] ;
406 -> 407 ;
408 [label="gini = 0.278\nsamples = 6\nvalue = [5, 1]"] ;
406 -> 408 ;
409 [label="annee <= 2013.5\ngini = 0.383\nsamples = 31\nvalue = [8, 23]"] ;
405 -> 409 ;
410 [label="gini = 0.269\nsamples = 25\nvalue = [4, 21]"] ;
409 -> 410 ;
411 [label="gini = 0.444\nsamples = 6\nvalue = [4, 2]"] ;
409 -> 411 ;
412 [label="Duree <= 101.5\ngini = 0.5\nsamples = 14\nvalue = [7, 7]"] ;
396 -> 412 ;
413 [label="Fantasy <= 0.5\ngini = 0.42\nsamples = 10\nvalue = [3, 7]"] ;
412 -> 413 ;
414 [label="Family <= 0.5\ngini = 0.245\nsamples = 7\nvalue = [1, 6]"] ;
413 -> 414 ;
415 [label="gini = 0.0\nsamples = 5\nvalue = [0, 5]"] ;
414 -> 415 ;
416 [label="gini = 0.5\nsamples = 2\nvalue = [1, 1]"] ;
414 -> 416 ;
417 [label="Duree <= 97.0\ngini = 0.444\nsamples = 3\nvalue = [2, 1]"] ;
413 -> 417 ;
418 [label="gini = 0.0\nsamples = 2\nvalue = [2, 0]"] ;
417 -> 418 ;
419 [label="gini = 0.0\nsamples = 1\nvalue = [0, 1]"] ;
417 -> 419 ;
420 [label="gini = 0.0\nsamples = 4\nvalue = [4, 0]"] ;
412 -> 420 ;
421 [label="gini = 0.0\nsamples = 8\nvalue = [0, 8]"] ;
395 -> 421 ;
422 [label="annee <= 2005.5\ngini = 0.5\nsamples = 85\nvalue = [42, 43]"] ;
394 -> 422 ;
423 [label="Duree <= 95.5\ngini = 0.457\nsamples = 48\nvalue = [17, 31]"] ;
422 -> 423 ;
424 [label="annee <= 1987.5\ngini = 0.496\nsamples = 22\nvalue = [12, 10]"] ;
423 -> 424 ;
425 [label="gini = 0.0\nsamples = 4\nvalue = [0, 4]"] ;
424 -> 425 ;
426 [label="Duree <= 83.0\ngini = 0.444\nsamples = 18\nvalue = [12, 6]"] ;
424 -> 426 ;
427 [label="gini = 0.0\nsamples = 2\nvalue = [0, 2]"] ;
426 -> 427 ;
428 [label="budget <= 5500000.0\ngini = 0.375\nsamples = 16\nvalue = [12, 4]"] ;
426 -> 428 ;
429 [label="gini = 0.5\nsamples = 6\nvalue = [3, 3]"] ;
428 -> 429 ;
430 [label="gini = 0.18\nsamples = 10\nvalue = [9, 1]"] ;
428 -> 430 ;
431 [label="Horror <= 0.5\ngini = 0.311\nsamples = 26\nvalue = [5, 21]"] ;
423 -> 431 ;
432 [label="budget <= 2945000.0\ngini = 0.219\nsamples = 24\nvalue = [3, 21]"] ;
431 -> 432 ;
433 [label="gini = 0.0\nsamples = 1\nvalue = [1, 0]"] ;
432 -> 433 ;
434 [label="Biography <= 0.5\ngini = 0.159\nsamples = 23\nvalue = [2, 21]"] ;
432 -> 434 ;
435 [label="gini = 0.087\nsamples = 22\nvalue = [1, 21]"] ;
434 -> 435 ;
436 [label="gini = 0.0\nsamples = 1\nvalue = [1, 0]"] ;
434 -> 436 ;
437 [label="gini = 0.0\nsamples = 2\nvalue = [2, 0]"] ;
431 -> 437 ;
438 [label="Horror <= 0.5\ngini = 0.438\nsamples = 37\nvalue = [25, 12]"] ;
422 -> 438 ;
439 [label="Duree <= 94.5\ngini = 0.488\nsamples = 26\nvalue = [15, 11]"] ;
438 -> 439 ;
440 [label="Crime <= 0.5\ngini = 0.375\nsamples = 12\nvalue = [9, 3]"] ;
439 -> 440 ;
441 [label="Mystery <= 0.5\ngini = 0.48\nsamples = 5\nvalue = [2, 3]"] ;
440 -> 441 ;
442 [label="gini = 0.0\nsamples = 3\nvalue = [0, 3]"] ;
441 -> 442 ;
443 [label="gini = 0.0\nsamples = 2\nvalue = [2, 0]"] ;
441 -> 443 ;
444 [label="gini = 0.0\nsamples = 7\nvalue = [7, 0]"] ;
440 -> 444 ;
445 [label="Duree <= 102.5\ngini = 0.49\nsamples = 14\nvalue = [6, 8]"] ;
439 -> 445 ;
446 [label="Fantasy <= 0.5\ngini = 0.444\nsamples = 12\nvalue = [4, 8]"] ;
445 -> 446 ;
447 [label="gini = 0.397\nsamples = 11\nvalue = [3, 8]"] ;
446 -> 447 ;
448 [label="gini = 0.0\nsamples = 1\nvalue = [1, 0]"] ;
446 -> 448 ;
449 [label="gini = 0.0\nsamples = 2\nvalue = [2, 0]"] ;
445 -> 449 ;
450 [label="Duree <= 101.5\ngini = 0.165\nsamples = 11\nvalue = [10, 1]"] ;
438 -> 450 ;
451 [label="gini = 0.0\nsamples = 8\nvalue = [8, 0]"] ;
450 -> 451 ;
452 [label="annee <= 2010.0\ngini = 0.444\nsamples = 3\nvalue = [2, 1]"] ;
450 -> 452 ;
453 [label="gini = 0.0\nsamples = 2\nvalue = [2, 0]"] ;
452 -> 453 ;
454 [label="gini = 0.0\nsamples = 1\nvalue = [0, 1]"] ;
452 -> 454 ;
455 [label="budget <= 11158052.5\ngini = 0.182\nsamples = 633\nvalue = [64, 569]"] ;
353 -> 455 ;
456 [label="Animation <= 0.5\ngini = 0.104\nsamples = 456\nvalue = [25, 431]"] ;
455 -> 456 ;
457 [label="budget <= 17805.0\ngini = 0.1\nsamples = 455\nvalue = [24, 431]"] ;
456 -> 457 ;
458 [label="gini = 0.0\nsamples = 1\nvalue = [1, 0]"] ;
457 -> 458 ;
459 [label="Sci-Fi <= 0.5\ngini = 0.096\nsamples = 454\nvalue = [23, 431]"] ;
457 -> 459 ;
460 [label="budget <= 4570000.0\ngini = 0.084\nsamples = 435\nvalue = [19, 416]"] ;
459 -> 460 ;
461 [label="annee <= 2011.5\ngini = 0.026\nsamples = 224\nvalue = [3, 221]"] ;
460 -> 461 ;
462 [label="budget <= 517750.0\ngini = 0.009\nsamples = 211\nvalue = [1, 210]"] ;
461 -> 462 ;
463 [label="gini = 0.117\nsamples = 16\nvalue = [1, 15]"] ;
462 -> 463 ;
464 [label="gini = 0.0\nsamples = 195\nvalue = [0, 195]"] ;
462 -> 464 ;
465 [label="Duree <= 114.0\ngini = 0.26\nsamples = 13\nvalue = [2, 11]"] ;
461 -> 465 ;
466 [label="gini = 0.5\nsamples = 4\nvalue = [2, 2]"] ;
465 -> 466 ;
467 [label="gini = 0.0\nsamples = 9\nvalue = [0, 9]"] ;
465 -> 467 ;
468 [label="budget <= 4614391.5\ngini = 0.14\nsamples = 211\nvalue = [16, 195]"] ;
460 -> 468 ;
469 [label="gini = 0.0\nsamples = 1\nvalue = [1, 0]"] ;
468 -> 469 ;
470 [label="Romance <= 0.5\ngini = 0.133\nsamples = 210\nvalue = [15, 195]"] ;
468 -> 470 ;
471 [label="gini = 0.089\nsamples = 150\nvalue = [7, 143]"] ;
470 -> 471 ;
472 [label="gini = 0.231\nsamples = 60\nvalue = [8, 52]"] ;
470 -> 472 ;
473 [label="Duree <= 112.5\ngini = 0.332\nsamples = 19\nvalue = [4, 15]"] ;
459 -> 473 ;
474 [label="Action <= 0.5\ngini = 0.5\nsamples = 6\nvalue = [3, 3]"] ;
473 -> 474 ;
475 [label="annee <= 1970.0\ngini = 0.375\nsamples = 4\nvalue = [3, 1]"] ;
474 -> 475 ;
476 [label="gini = 0.0\nsamples = 1\nvalue = [0, 1]"] ;
475 -> 476 ;
477 [label="gini = 0.0\nsamples = 3\nvalue = [3, 0]"] ;
475 -> 477 ;
478 [label="gini = 0.0\nsamples = 2\nvalue = [0, 2]"] ;
474 -> 478 ;
479 [label="budget <= 8200000.0\ngini = 0.142\nsamples = 13\nvalue = [1, 12]"] ;
473 -> 479 ;
480 [label="gini = 0.0\nsamples = 11\nvalue = [0, 11]"] ;
479 -> 480 ;
481 [label="annee <= 1992.5\ngini = 0.5\nsamples = 2\nvalue = [1, 1]"] ;
479 -> 481 ;
482 [label="gini = 0.0\nsamples = 1\nvalue = [0, 1]"] ;
481 -> 482 ;
483 [label="gini = 0.0\nsamples = 1\nvalue = [1, 0]"] ;
481 -> 483 ;
484 [label="gini = 0.0\nsamples = 1\nvalue = [1, 0]"] ;
456 -> 484 ;
485 [label="annee <= 2009.5\ngini = 0.344\nsamples = 177\nvalue = [39, 138]"] ;
455 -> 485 ;
486 [label="Comedy <= 0.5\ngini = 0.263\nsamples = 135\nvalue = [21, 114]"] ;
485 -> 486 ;
487 [label="budget <= 11250000.0\ngini = 0.194\nsamples = 110\nvalue = [12, 98]"] ;
486 -> 487 ;
488 [label="gini = 0.0\nsamples = 1\nvalue = [1, 0]"] ;
487 -> 488 ;
489 [label="Horror <= 0.5\ngini = 0.181\nsamples = 109\nvalue = [11, 98]"] ;
487 -> 489 ;
490 [label="Music <= 0.5\ngini = 0.168\nsamples = 108\nvalue = [10, 98]"] ;
489 -> 490 ;
491 [label="Duree <= 111.5\ngini = 0.129\nsamples = 101\nvalue = [7, 94]"] ;
490 -> 491 ;
492 [label="gini = 0.351\nsamples = 22\nvalue = [5, 17]"] ;
491 -> 492 ;
493 [label="gini = 0.049\nsamples = 79\nvalue = [2, 77]"] ;
491 -> 493 ;
494 [label="annee <= 1993.5\ngini = 0.49\nsamples = 7\nvalue = [3, 4]"] ;
490 -> 494 ;
495 [label="gini = 0.0\nsamples = 2\nvalue = [0, 2]"] ;
494 -> 495 ;
496 [label="gini = 0.48\nsamples = 5\nvalue = [3, 2]"] ;
494 -> 496 ;
497 [label="gini = 0.0\nsamples = 1\nvalue = [1, 0]"] ;
489 -> 497 ;
498 [label="Duree <= 124.5\ngini = 0.461\nsamples = 25\nvalue = [9, 16]"] ;
486 -> 498 ;
499 [label="annee <= 2006.5\ngini = 0.499\nsamples = 19\nvalue = [9, 10]"] ;
498 -> 499 ;
500 [label="budget <= 14500000.0\ngini = 0.492\nsamples = 16\nvalue = [9, 7]"] ;
499 -> 500 ;
501 [label="Duree <= 112.5\ngini = 0.48\nsamples = 10\nvalue = [4, 6]"] ;
500 -> 501 ;
502 [label="gini = 0.0\nsamples = 3\nvalue = [0, 3]"] ;
501 -> 502 ;
503 [label="gini = 0.49\nsamples = 7\nvalue = [4, 3]"] ;
501 -> 503 ;
504 [label="annee <= 1999.5\ngini = 0.278\nsamples = 6\nvalue = [5, 1]"] ;
500 -> 504 ;
505 [label="gini = 0.0\nsamples = 4\nvalue = [4, 0]"] ;
504 -> 505 ;
506 [label="gini = 0.5\nsamples = 2\nvalue = [1, 1]"] ;
504 -> 506 ;
507 [label="gini = 0.0\nsamples = 3\nvalue = [0, 3]"] ;
499 -> 507 ;
508 [label="gini = 0.0\nsamples = 6\nvalue = [0, 6]"] ;
498 -> 508 ;
509 [label="Duree <= 120.0\ngini = 0.49\nsamples = 42\nvalue = [18, 24]"] ;
485 -> 509 ;
510 [label="Duree <= 106.5\ngini = 0.499\nsamples = 29\nvalue = [15, 14]"] ;
509 -> 510 ;
511 [label="gini = 0.0\nsamples = 3\nvalue = [0, 3]"] ;
510 -> 511 ;
512 [label="Crime <= 0.5\ngini = 0.488\nsamples = 26\nvalue = [15, 11]"] ;
510 -> 512 ;
513 [label="Music <= 0.5\ngini = 0.499\nsamples = 21\nvalue = [10, 11]"] ;
512 -> 513 ;
514 [label="annee <= 2010.5\ngini = 0.488\nsamples = 19\nvalue = [8, 11]"] ;
513 -> 514 ;
515 [label="gini = 0.0\nsamples = 4\nvalue = [0, 4]"] ;
514 -> 515 ;
516 [label="gini = 0.498\nsamples = 15\nvalue = [8, 7]"] ;
514 -> 516 ;
517 [label="gini = 0.0\nsamples = 2\nvalue = [2, 0]"] ;
513 -> 517 ;
518 [label="gini = 0.0\nsamples = 5\nvalue = [5, 0]"] ;
512 -> 518 ;
519 [label="budget <= 14345000.0\ngini = 0.355\nsamples = 13\nvalue = [3, 10]"] ;
509 -> 519 ;
520 [label="Romance <= 0.5\ngini = 0.5\nsamples = 6\nvalue = [3, 3]"] ;
519 -> 520 ;
521 [label="History <= 0.5\ngini = 0.375\nsamples = 4\nvalue = [3, 1]"] ;
520 -> 521 ;
522 [label="gini = 0.0\nsamples = 3\nvalue = [3, 0]"] ;
521 -> 522 ;
523 [label="gini = 0.0\nsamples = 1\nvalue = [0, 1]"] ;
521 -> 523 ;
524 [label="gini = 0.0\nsamples = 2\nvalue = [0, 2]"] ;
520 -> 524 ;
525 [label="gini = 0.0\nsamples = 7\nvalue = [0, 7]"] ;
519 -> 525 ;
526 [label="Duree <= 115.5\ngini = 0.481\nsamples = 1156\nvalue = [465, 691]"] ;
352 -> 526 ;
527 [label="Biography <= 0.5\ngini = 0.486\nsamples = 540\nvalue = [315, 225]"] ;
526 -> 527 ;
528 [label="Thriller <= 0.5\ngini = 0.477\nsamples = 512\nvalue = [311, 201]"] ;
527 -> 528 ;
529 [label="Duree <= 107.5\ngini = 0.499\nsamples = 284\nvalue = [149, 135]"] ;
528 -> 529 ;
530 [label="Animation <= 0.5\ngini = 0.481\nsamples = 189\nvalue = [113, 76]"] ;
529 -> 530 ;
531 [label="budget <= 32500000.0\ngini = 0.464\nsamples = 172\nvalue = [109, 63]"] ;
530 -> 531 ;
532 [label="annee <= 1996.5\ngini = 0.495\nsamples = 116\nvalue = [64, 52]"] ;
531 -> 532 ;
533 [label="Music <= 0.5\ngini = 0.444\nsamples = 27\nvalue = [9, 18]"] ;
532 -> 533 ;
534 [label="gini = 0.403\nsamples = 25\nvalue = [7, 18]"] ;
533 -> 534 ;
535 [label="gini = 0.0\nsamples = 2\nvalue = [2, 0]"] ;
533 -> 535 ;
536 [label="budget <= 17600000.0\ngini = 0.472\nsamples = 89\nvalue = [55, 34]"] ;
532 -> 536 ;
537 [label="gini = 0.463\nsamples = 11\nvalue = [4, 7]"] ;
536 -> 537 ;
538 [label="gini = 0.453\nsamples = 78\nvalue = [51, 27]"] ;
536 -> 538 ;
539 [label="budget <= 80500000.0\ngini = 0.316\nsamples = 56\nvalue = [45, 11]"] ;
531 -> 539 ;
540 [label="annee <= 2005.5\ngini = 0.269\nsamples = 50\nvalue = [42, 8]"] ;
539 -> 540 ;
541 [label="gini = 0.121\nsamples = 31\nvalue = [29, 2]"] ;
540 -> 541 ;
542 [label="gini = 0.432\nsamples = 19\nvalue = [13, 6]"] ;
540 -> 542 ;
543 [label="annee <= 2010.5\ngini = 0.5\nsamples = 6\nvalue = [3, 3]"] ;
539 -> 543 ;
544 [label="gini = 0.0\nsamples = 3\nvalue = [0, 3]"] ;
543 -> 544 ;
545 [label="gini = 0.0\nsamples = 3\nvalue = [3, 0]"] ;
543 -> 545 ;
546 [label="budget <= 42500000.0\ngini = 0.36\nsamples = 17\nvalue = [4, 13]"] ;
530 -> 546 ;
547 [label="Comedy <= 0.5\ngini = 0.49\nsamples = 7\nvalue = [4, 3]"] ;
546 -> 547 ;
548 [label="Duree <= 97.0\ngini = 0.375\nsamples = 4\nvalue = [1, 3]"] ;
547 -> 548 ;
549 [label="gini = 0.0\nsamples = 3\nvalue = [0, 3]"] ;
548 -> 549 ;
550 [label="gini = 0.0\nsamples = 1\nvalue = [1, 0]"] ;
548 -> 550 ;
551 [label="gini = 0.0\nsamples = 3\nvalue = [3, 0]"] ;
547 -> 551 ;
552 [label="gini = 0.0\nsamples = 10\nvalue = [0, 10]"] ;
546 -> 552 ;
553 [label="annee <= 2005.5\ngini = 0.471\nsamples = 95\nvalue = [36, 59]"] ;
529 -> 553 ;
554 [label="Sport <= 0.5\ngini = 0.386\nsamples = 46\nvalue = [12, 34]"] ;
553 -> 554 ;
555 [label="annee <= 1980.5\ngini = 0.369\nsamples = 45\nvalue = [11, 34]"] ;
554 -> 555 ;
556 [label="gini = 0.0\nsamples = 1\nvalue = [1, 0]"] ;
555 -> 556 ;
557 [label="annee <= 1992.5\ngini = 0.351\nsamples = 44\nvalue = [10, 34]"] ;
555 -> 557 ;
558 [label="gini = 0.0\nsamples = 10\nvalue = [0, 10]"] ;
557 -> 558 ;
559 [label="gini = 0.415\nsamples = 34\nvalue = [10, 24]"] ;
557 -> 559 ;
560 [label="gini = 0.0\nsamples = 1\nvalue = [1, 0]"] ;
554 -> 560 ;
561 [label="budget <= 100000000.0\ngini = 0.5\nsamples = 49\nvalue = [24, 25]"] ;
553 -> 561 ;
562 [label="Music <= 0.5\ngini = 0.496\nsamples = 46\nvalue = [21, 25]"] ;
561 -> 562 ;
563 [label="Family <= 0.5\ngini = 0.491\nsamples = 44\nvalue = [19, 25]"] ;
562 -> 563 ;
564 [label="gini = 0.497\nsamples = 41\nvalue = [19, 22]"] ;
563 -> 564 ;
565 [label="gini = 0.0\nsamples = 3\nvalue = [0, 3]"] ;
563 -> 565 ;
566 [label="gini = 0.0\nsamples = 2\nvalue = [2, 0]"] ;
562 -> 566 ;
567 [label="gini = 0.0\nsamples = 3\nvalue = [3, 0]"] ;
561 -> 567 ;
568 [label="Duree <= 104.5\ngini = 0.411\nsamples = 228\nvalue = [162, 66]"] ;
528 -> 568 ;
569 [label="War <= 0.5\ngini = 0.308\nsamples = 105\nvalue = [85, 20]"] ;
568 -> 569 ;
570 [label="Crime <= 0.5\ngini = 0.291\nsamples = 102\nvalue = [84, 18]"] ;
569 -> 570 ;
571 [label="Animation <= 0.5\ngini = 0.153\nsamples = 48\nvalue = [44, 4]"] ;
570 -> 571 ;
572 [label="budget <= 49000000.0\ngini = 0.12\nsamples = 47\nvalue = [44, 3]"] ;
571 -> 572 ;
573 [label="gini = 0.053\nsamples = 37\nvalue = [36, 1]"] ;
572 -> 573 ;
574 [label="gini = 0.32\nsamples = 10\nvalue = [8, 2]"] ;
572 -> 574 ;
575 [label="gini = 0.0\nsamples = 1\nvalue = [0, 1]"] ;
571 -> 575 ;
576 [label="budget <= 21000000.0\ngini = 0.384\nsamples = 54\nvalue = [40, 14]"] ;
570 -> 576 ;
577 [label="Duree <= 93.0\ngini = 0.486\nsamples = 12\nvalue = [5, 7]"] ;
576 -> 577 ;
578 [label="gini = 0.0\nsamples = 2\nvalue = [2, 0]"] ;
577 -> 578 ;
579 [label="gini = 0.42\nsamples = 10\nvalue = [3, 7]"] ;
577 -> 579 ;
580 [label="annee <= 2005.5\ngini = 0.278\nsamples = 42\nvalue = [35, 7]"] ;
576 -> 580 ;
581 [label="gini = 0.397\nsamples = 22\nvalue = [16, 6]"] ;
580 -> 581 ;
582 [label="gini = 0.095\nsamples = 20\nvalue = [19, 1]"] ;
580 -> 582 ;
583 [label="budget <= 32500000.0\ngini = 0.444\nsamples = 3\nvalue = [1, 2]"] ;
569 -> 583 ;
584 [label="gini = 0.0\nsamples = 2\nvalue = [0, 2]"] ;
583 -> 584 ;
585 [label="gini = 0.0\nsamples = 1\nvalue = [1, 0]"] ;
583 -> 585 ;
586 [label="annee <= 2004.5\ngini = 0.468\nsamples = 123\nvalue = [77, 46]"] ;
568 -> 586 ;
587 [label="budget <= 37000000.0\ngini = 0.354\nsamples = 61\nvalue = [47, 14]"] ;
586 -> 587 ;
588 [label="Crime <= 0.5\ngini = 0.473\nsamples = 26\nvalue = [16, 10]"] ;
587 -> 588 ;
589 [label="Duree <= 110.5\ngini = 0.48\nsamples = 10\nvalue = [4, 6]"] ;
588 -> 589 ;
590 [label="gini = 0.49\nsamples = 7\nvalue = [4, 3]"] ;
589 -> 590 ;
591 [label="gini = 0.0\nsamples = 3\nvalue = [0, 3]"] ;
589 -> 591 ;
592 [label="budget <= 19500000.0\ngini = 0.375\nsamples = 16\nvalue = [12, 4]"] ;
588 -> 592 ;
593 [label="gini = 0.0\nsamples = 1\nvalue = [0, 1]"] ;
592 -> 593 ;
594 [label="gini = 0.32\nsamples = 15\nvalue = [12, 3]"] ;
592 -> 594 ;
595 [label="Duree <= 107.5\ngini = 0.202\nsamples = 35\nvalue = [31, 4]"] ;
587 -> 595 ;
596 [label="Mystery <= 0.5\ngini = 0.42\nsamples = 10\nvalue = [7, 3]"] ;
595 -> 596 ;
597 [label="gini = 0.219\nsamples = 8\nvalue = [7, 1]"] ;
596 -> 597 ;
598 [label="gini = 0.0\nsamples = 2\nvalue = [0, 2]"] ;
596 -> 598 ;
599 [label="Horror <= 0.5\ngini = 0.077\nsamples = 25\nvalue = [24, 1]"] ;
595 -> 599 ;
600 [label="gini = 0.0\nsamples = 23\nvalue = [23, 0]"] ;
599 -> 600 ;
601 [label="gini = 0.5\nsamples = 2\nvalue = [1, 1]"] ;
599 -> 601 ;
602 [label="budget <= 42500000.0\ngini = 0.499\nsamples = 62\nvalue = [30, 32]"] ;
586 -> 602 ;
603 [label="budget <= 34450000.0\ngini = 0.478\nsamples = 48\nvalue = [29, 19]"] ;
602 -> 603 ;
604 [label="annee <= 2008.5\ngini = 0.499\nsamples = 40\nvalue = [21, 19]"] ;
603 -> 604 ;
605 [label="gini = 0.472\nsamples = 21\nvalue = [8, 13]"] ;
604 -> 605 ;
606 [label="gini = 0.432\nsamples = 19\nvalue = [13, 6]"] ;
604 -> 606 ;
607 [label="gini = 0.0\nsamples = 8\nvalue = [8, 0]"] ;
603 -> 607 ;
608 [label="annee <= 2014.0\ngini = 0.133\nsamples = 14\nvalue = [1, 13]"] ;
602 -> 608 ;
609 [label="gini = 0.0\nsamples = 12\nvalue = [0, 12]"] ;
608 -> 609 ;
610 [label="Crime <= 0.5\ngini = 0.5\nsamples = 2\nvalue = [1, 1]"] ;
608 -> 610 ;
611 [label="gini = 0.0\nsamples = 1\nvalue = [1, 0]"] ;
610 -> 611 ;
612 [label="gini = 0.0\nsamples = 1\nvalue = [0, 1]"] ;
610 -> 612 ;
613 [label="annee <= 2011.5\ngini = 0.245\nsamples = 28\nvalue = [4, 24]"] ;
527 -> 613 ;
614 [label="Fantasy <= 0.5\ngini = 0.142\nsamples = 26\nvalue = [2, 24]"] ;
613 -> 614 ;
615 [label="annee <= 2010.5\ngini = 0.077\nsamples = 25\nvalue = [1, 24]"] ;
614 -> 615 ;
616 [label="gini = 0.0\nsamples = 22\nvalue = [0, 22]"] ;
615 -> 616 ;
617 [label="Duree <= 102.5\ngini = 0.444\nsamples = 3\nvalue = [1, 2]"] ;
615 -> 617 ;
618 [label="gini = 0.0\nsamples = 1\nvalue = [1, 0]"] ;
617 -> 618 ;
619 [label="gini = 0.0\nsamples = 2\nvalue = [0, 2]"] ;
617 -> 619 ;
620 [label="gini = 0.0\nsamples = 1\nvalue = [1, 0]"] ;
614 -> 620 ;
621 [label="gini = 0.0\nsamples = 2\nvalue = [2, 0]"] ;
613 -> 621 ;
622 [label="budget <= 36500000.0\ngini = 0.368\nsamples = 616\nvalue = [150, 466]"] ;
526 -> 622 ;
623 [label="Sci-Fi <= 0.5\ngini = 0.216\nsamples = 292\nvalue = [36, 256]"] ;
622 -> 623 ;
624 [label="Duree <= 141.5\ngini = 0.195\nsamples = 283\nvalue = [31, 252]"] ;
623 -> 624 ;
625 [label="budget <= 24750000.0\ngini = 0.238\nsamples = 225\nvalue = [31, 194]"] ;
624 -> 625 ;
626 [label="Romance <= 0.5\ngini = 0.161\nsamples = 102\nvalue = [9, 93]"] ;
625 -> 626 ;
627 [label="Duree <= 140.5\ngini = 0.097\nsamples = 78\nvalue = [4, 74]"] ;
626 -> 627 ;
628 [label="Sport <= 0.5\ngini = 0.077\nsamples = 75\nvalue = [3, 72]"] ;
627 -> 628 ;
629 [label="gini = 0.057\nsamples = 68\nvalue = [2, 66]"] ;
628 -> 629 ;
630 [label="gini = 0.245\nsamples = 7\nvalue = [1, 6]"] ;
628 -> 630 ;
631 [label="annee <= 2005.0\ngini = 0.444\nsamples = 3\nvalue = [1, 2]"] ;
627 -> 631 ;
632 [label="gini = 0.0\nsamples = 1\nvalue = [1, 0]"] ;
631 -> 632 ;
633 [label="gini = 0.0\nsamples = 2\nvalue = [0, 2]"] ;
631 -> 633 ;
634 [label="Musical <= 0.5\ngini = 0.33\nsamples = 24\nvalue = [5, 19]"] ;
626 -> 634 ;
635 [label="annee <= 1986.5\ngini = 0.287\nsamples = 23\nvalue = [4, 19]"] ;
634 -> 635 ;
636 [label="gini = 0.0\nsamples = 1\nvalue = [1, 0]"] ;
635 -> 636 ;
637 [label="gini = 0.236\nsamples = 22\nvalue = [3, 19]"] ;
635 -> 637 ;
638 [label="gini = 0.0\nsamples = 1\nvalue = [1, 0]"] ;
634 -> 638 ;
639 [label="annee <= 2011.5\ngini = 0.294\nsamples = 123\nvalue = [22, 101]"] ;
625 -> 639 ;
640 [label="Horror <= 0.5\ngini = 0.237\nsamples = 102\nvalue = [14, 88]"] ;
639 -> 640 ;
641 [label="Duree <= 140.5\ngini = 0.224\nsamples = 101\nvalue = [13, 88]"] ;
640 -> 641 ;
642 [label="gini = 0.211\nsamples = 100\nvalue = [12, 88]"] ;
641 -> 642 ;
643 [label="gini = 0.0\nsamples = 1\nvalue = [1, 0]"] ;
641 -> 643 ;
644 [label="gini = 0.0\nsamples = 1\nvalue = [1, 0]"] ;
640 -> 644 ;
645 [label="budget <= 29000000.0\ngini = 0.472\nsamples = 21\nvalue = [8, 13]"] ;
639 -> 645 ;
646 [label="Duree <= 125.5\ngini = 0.463\nsamples = 11\nvalue = [7, 4]"] ;
645 -> 646 ;
647 [label="gini = 0.32\nsamples = 5\nvalue = [1, 4]"] ;
646 -> 647 ;
648 [label="gini = 0.0\nsamples = 6\nvalue = [6, 0]"] ;
646 -> 648 ;
649 [label="War <= 0.5\ngini = 0.18\nsamples = 10\nvalue = [1, 9]"] ;
645 -> 649 ;
650 [label="gini = 0.0\nsamples = 9\nvalue = [0, 9]"] ;
649 -> 650 ;
651 [label="gini = 0.0\nsamples = 1\nvalue = [1, 0]"] ;
649 -> 651 ;
652 [label="gini = 0.0\nsamples = 58\nvalue = [0, 58]"] ;
624 -> 652 ;
653 [label="budget <= 31500000.0\ngini = 0.494\nsamples = 9\nvalue = [5, 4]"] ;
623 -> 653 ;
654 [label="annee <= 2013.5\ngini = 0.49\nsamples = 7\nvalue = [3, 4]"] ;
653 -> 654 ;
655 [label="Duree <= 147.5\ngini = 0.32\nsamples = 5\nvalue = [1, 4]"] ;
654 -> 655 ;
656 [label="gini = 0.0\nsamples = 4\nvalue = [0, 4]"] ;
655 -> 656 ;
657 [label="gini = 0.0\nsamples = 1\nvalue = [1, 0]"] ;
655 -> 657 ;
658 [label="gini = 0.0\nsamples = 2\nvalue = [2, 0]"] ;
654 -> 658 ;
659 [label="gini = 0.0\nsamples = 2\nvalue = [2, 0]"] ;
653 -> 659 ;
660 [label="Duree <= 137.5\ngini = 0.456\nsamples = 324\nvalue = [114, 210]"] ;
622 -> 660 ;
661 [label="Romance <= 0.5\ngini = 0.497\nsamples = 203\nvalue = [94, 109]"] ;
660 -> 661 ;
662 [label="annee <= 1991.0\ngini = 0.473\nsamples = 151\nvalue = [58, 93]"] ;
661 -> 662 ;
663 [label="gini = 0.0\nsamples = 4\nvalue = [4, 0]"] ;
662 -> 663 ;
664 [label="Action <= 0.5\ngini = 0.465\nsamples = 147\nvalue = [54, 93]"] ;
662 -> 664 ;
665 [label="Adventure <= 0.5\ngini = 0.431\nsamples = 105\nvalue = [33, 72]"] ;
664 -> 665 ;
666 [label="Sport <= 0.5\ngini = 0.456\nsamples = 94\nvalue = [33, 61]"] ;
665 -> 666 ;
667 [label="gini = 0.473\nsamples = 86\nvalue = [33, 53]"] ;
666 -> 667 ;
668 [label="gini = 0.0\nsamples = 8\nvalue = [0, 8]"] ;
666 -> 668 ;
669 [label="gini = 0.0\nsamples = 11\nvalue = [0, 11]"] ;
665 -> 669 ;
670 [label="Adventure <= 0.5\ngini = 0.5\nsamples = 42\nvalue = [21, 21]"] ;
664 -> 670 ;
671 [label="annee <= 2003.5\ngini = 0.484\nsamples = 34\nvalue = [14, 20]"] ;
670 -> 671 ;
672 [label="gini = 0.494\nsamples = 18\nvalue = [10, 8]"] ;
671 -> 672 ;
673 [label="gini = 0.375\nsamples = 16\nvalue = [4, 12]"] ;
671 -> 673 ;
674 [label="Duree <= 121.0\ngini = 0.219\nsamples = 8\nvalue = [7, 1]"] ;
670 -> 674 ;
675 [label="gini = 0.0\nsamples = 1\nvalue = [0, 1]"] ;
674 -> 675 ;
676 [label="gini = 0.0\nsamples = 7\nvalue = [7, 0]"] ;
674 -> 676 ;
677 [label="annee <= 1996.5\ngini = 0.426\nsamples = 52\nvalue = [36, 16]"] ;
661 -> 677 ;
678 [label="gini = 0.0\nsamples = 9\nvalue = [9, 0]"] ;
677 -> 678 ;
679 [label="budget <= 53750000.0\ngini = 0.467\nsamples = 43\nvalue = [27, 16]"] ;
677 -> 679 ;
680 [label="Duree <= 122.5\ngini = 0.494\nsamples = 18\nvalue = [8, 10]"] ;
679 -> 680 ;
681 [label="annee <= 2009.5\ngini = 0.408\nsamples = 7\nvalue = [5, 2]"] ;
680 -> 681 ;
682 [label="gini = 0.0\nsamples = 5\nvalue = [5, 0]"] ;
681 -> 682 ;
683 [label="gini = 0.0\nsamples = 2\nvalue = [0, 2]"] ;
681 -> 683 ;
684 [label="annee <= 2008.0\ngini = 0.397\nsamples = 11\nvalue = [3, 8]"] ;
680 -> 684 ;
685 [label="gini = 0.0\nsamples = 7\nvalue = [0, 7]"] ;
684 -> 685 ;
686 [label="gini = 0.375\nsamples = 4\nvalue = [3, 1]"] ;
684 -> 686 ;
687 [label="annee <= 2002.5\ngini = 0.365\nsamples = 25\nvalue = [19, 6]"] ;
679 -> 687 ;
688 [label="Fantasy <= 0.5\ngini = 0.486\nsamples = 12\nvalue = [7, 5]"] ;
687 -> 688 ;
689 [label="gini = 0.42\nsamples = 10\nvalue = [7, 3]"] ;
688 -> 689 ;
690 [label="gini = 0.0\nsamples = 2\nvalue = [0, 2]"] ;
688 -> 690 ;
691 [label="Horror <= 0.5\ngini = 0.142\nsamples = 13\nvalue = [12, 1]"] ;
687 -> 691 ;
692 [label="gini = 0.0\nsamples = 12\nvalue = [12, 0]"] ;
691 -> 692 ;
693 [label="gini = 0.0\nsamples = 1\nvalue = [0, 1]"] ;
691 -> 693 ;
694 [label="Western <= 0.5\ngini = 0.276\nsamples = 121\nvalue = [20, 101]"] ;
660 -> 694 ;
695 [label="budget <= 112500000.0\ngini = 0.257\nsamples = 119\nvalue = [18, 101]"] ;
694 -> 695 ;
696 [label="Family <= 0.5\ngini = 0.206\nsamples = 103\nvalue = [12, 91]"] ;
695 -> 696 ;
697 [label="Duree <= 260.0\ngini = 0.192\nsamples = 102\nvalue = [11, 91]"] ;
696 -> 697 ;
698 [label="Comedy <= 0.5\ngini = 0.178\nsamples = 101\nvalue = [10, 91]"] ;
697 -> 698 ;
699 [label="gini = 0.138\nsamples = 94\nvalue = [7, 87]"] ;
698 -> 699 ;
700 [label="gini = 0.49\nsamples = 7\nvalue = [3, 4]"] ;
698 -> 700 ;
701 [label="gini = 0.0\nsamples = 1\nvalue = [1, 0]"] ;
697 -> 701 ;
702 [label="gini = 0.0\nsamples = 1\nvalue = [1, 0]"] ;
696 -> 702 ;
703 [label="budget <= 127500000.0\ngini = 0.469\nsamples = 16\nvalue = [6, 10]"] ;
695 -> 703 ;
704 [label="gini = 0.0\nsamples = 3\nvalue = [3, 0]"] ;
703 -> 704 ;
705 [label="Biography <= 0.5\ngini = 0.355\nsamples = 13\nvalue = [3, 10]"] ;
703 -> 705 ;
706 [label="budget <= 145000000.0\ngini = 0.278\nsamples = 12\nvalue = [2, 10]"] ;
705 -> 706 ;
707 [label="gini = 0.48\nsamples = 5\nvalue = [2, 3]"] ;
706 -> 707 ;
708 [label="gini = 0.0\nsamples = 7\nvalue = [0, 7]"] ;
706 -> 708 ;
709 [label="gini = 0.0\nsamples = 1\nvalue = [1, 0]"] ;
705 -> 709 ;
710 [label="gini = 0.0\nsamples = 2\nvalue = [2, 0]"] ;
694 -> 710 ;
}