digraph Tree {
node [shape=box] ;
0 [label="Drama <= 0.5\ngini = 0.492\nsamples = 3669\nvalue = [1598, 2071]"] ;
1 [label="annee <= 1987.5\ngini = 0.488\nsamples = 1851\nvalue = [1068, 783]"] ;
0 -> 1 [labeldistance=2.5, labelangle=45, headlabel="True"] ;
2 [label="annee <= 1976.5\ngini = 0.399\nsamples = 331\nvalue = [91, 240]"] ;
1 -> 2 ;
3 [label="Sci-Fi <= 0.5\ngini = 0.179\nsamples = 141\nvalue = [14, 127]"] ;
2 -> 3 ;
4 [label="budget <= 22000000.0\ngini = 0.082\nsamples = 116\nvalue = [5, 111]"] ;
3 -> 4 ;
5 [label="gini = 0.067\nsamples = 115\nvalue = [4, 111]"] ;
4 -> 5 ;
6 [label="gini = 0.0\nsamples = 1\nvalue = [1, 0]"] ;
4 -> 6 ;
7 [label="annee <= 1957.0\ngini = 0.461\nsamples = 25\nvalue = [9, 16]"] ;
3 -> 7 ;
8 [label="gini = 0.0\nsamples = 7\nvalue = [0, 7]"] ;
7 -> 8 ;
9 [label="gini = 0.5\nsamples = 18\nvalue = [9, 9]"] ;
7 -> 9 ;
10 [label="budget <= 33250000.0\ngini = 0.482\nsamples = 190\nvalue = [77, 113]"] ;
2 -> 10 ;
11 [label="Duree <= 103.5\ngini = 0.469\nsamples = 178\nvalue = [67, 111]"] ;
10 -> 11 ;
12 [label="gini = 0.497\nsamples = 110\nvalue = [51, 59]"] ;
11 -> 12 ;
13 [label="gini = 0.36\nsamples = 68\nvalue = [16, 52]"] ;
11 -> 13 ;
14 [label="Duree <= 160.0\ngini = 0.278\nsamples = 12\nvalue = [10, 2]"] ;
10 -> 14 ;
15 [label="gini = 0.165\nsamples = 11\nvalue = [10, 1]"] ;
14 -> 15 ;
16 [label="gini = 0.0\nsamples = 1\nvalue = [0, 1]"] ;
14 -> 16 ;
17 [label="Duree <= 116.5\ngini = 0.459\nsamples = 1520\nvalue = [977, 543]"] ;
1 -> 17 ;
18 [label="Animation <= 0.5\ngini = 0.42\nsamples = 1249\nvalue = [875, 374]"] ;
17 -> 18 ;
19 [label="budget <= 9240000.0\ngini = 0.389\nsamples = 1133\nvalue = [833, 300]"] ;
18 -> 19 ;
20 [label="gini = 0.488\nsamples = 237\nvalue = [137, 100]"] ;
19 -> 20 ;
21 [label="gini = 0.347\nsamples = 896\nvalue = [696, 200]"] ;
19 -> 21 ;
22 [label="Music <= 0.5\ngini = 0.462\nsamples = 116\nvalue = [42, 74]"] ;
18 -> 22 ;
23 [label="gini = 0.446\nsamples = 110\nvalue = [37, 73]"] ;
22 -> 23 ;
24 [label="gini = 0.278\nsamples = 6\nvalue = [5, 1]"] ;
22 -> 24 ;
25 [label="Duree <= 125.5\ngini = 0.469\nsamples = 271\nvalue = [102, 169]"] ;
17 -> 25 ;
26 [label="budget <= 49500000.0\ngini = 0.5\nsamples = 126\nvalue = [64, 62]"] ;
25 -> 26 ;
27 [label="gini = 0.465\nsamples = 57\nvalue = [21, 36]"] ;
26 -> 27 ;
28 [label="gini = 0.47\nsamples = 69\nvalue = [43, 26]"] ;
26 -> 28 ;
29 [label="budget <= 18700000.0\ngini = 0.387\nsamples = 145\nvalue = [38, 107]"] ;
25 -> 29 ;
30 [label="gini = 0.497\nsamples = 13\nvalue = [7, 6]"] ;
29 -> 30 ;
31 [label="gini = 0.359\nsamples = 132\nvalue = [31, 101]"] ;
29 -> 31 ;
32 [label="budget <= 16750000.0\ngini = 0.413\nsamples = 1818\nvalue = [530, 1288]"] ;
0 -> 32 [labeldistance=2.5, labelangle=-45, headlabel="False"] ;
33 [label="annee <= 2009.5\ngini = 0.288\nsamples = 927\nvalue = [162, 765]"] ;
32 -> 33 ;
34 [label="annee <= 1976.5\ngini = 0.235\nsamples = 741\nvalue = [101, 640]"] ;
33 -> 34 ;
35 [label="budget <= 6250000.0\ngini = 0.013\nsamples = 157\nvalue = [1, 156]"] ;
34 -> 35 ;
36 [label="gini = 0.0\nsamples = 140\nvalue = [0, 140]"] ;
35 -> 36 ;
37 [label="gini = 0.111\nsamples = 17\nvalue = [1, 16]"] ;
35 -> 37 ;
38 [label="Duree <= 104.5\ngini = 0.284\nsamples = 584\nvalue = [100, 484]"] ;
34 -> 38 ;
39 [label="gini = 0.38\nsamples = 255\nvalue = [65, 190]"] ;
38 -> 39 ;
40 [label="gini = 0.19\nsamples = 329\nvalue = [35, 294]"] ;
38 -> 40 ;
41 [label="Duree <= 97.5\ngini = 0.441\nsamples = 186\nvalue = [61, 125]"] ;
33 -> 41 ;
42 [label="Action <= 0.5\ngini = 0.497\nsamples = 52\nvalue = [28, 24]"] ;
41 -> 42 ;
43 [label="gini = 0.499\nsamples = 46\nvalue = [22, 24]"] ;
42 -> 43 ;
44 [label="gini = 0.0\nsamples = 6\nvalue = [6, 0]"] ;
42 -> 44 ;
45 [label="budget <= 11150000.0\ngini = 0.371\nsamples = 134\nvalue = [33, 101]"] ;
41 -> 45 ;
46 [label="gini = 0.242\nsamples = 85\nvalue = [12, 73]"] ;
45 -> 46 ;
47 [label="gini = 0.49\nsamples = 49\nvalue = [21, 28]"] ;
45 -> 47 ;
48 [label="Duree <= 115.5\ngini = 0.485\nsamples = 891\nvalue = [368, 523]"] ;
32 -> 48 ;
49 [label="Biography <= 0.5\ngini = 0.477\nsamples = 414\nvalue = [251, 163]"] ;
48 -> 49 ;
50 [label="Animation <= 0.5\ngini = 0.466\nsamples = 393\nvalue = [248, 145]"] ;
49 -> 50 ;
51 [label="gini = 0.458\nsamples = 381\nvalue = [246, 135]"] ;
50 -> 51 ;
52 [label="gini = 0.278\nsamples = 12\nvalue = [2, 10]"] ;
50 -> 52 ;
53 [label="annee <= 2011.5\ngini = 0.245\nsamples = 21\nvalue = [3, 18]"] ;
49 -> 53 ;
54 [label="gini = 0.1\nsamples = 19\nvalue = [1, 18]"] ;
53 -> 54 ;
55 [label="gini = 0.0\nsamples = 2\nvalue = [2, 0]"] ;
53 -> 55 ;
56 [label="budget <= 37500000.0\ngini = 0.37\nsamples = 477\nvalue = [117, 360]"] ;
48 -> 56 ;
57 [label="Sci-Fi <= 0.5\ngini = 0.223\nsamples = 227\nvalue = [29, 198]"] ;
56 -> 57 ;
58 [label="gini = 0.196\nsamples = 218\nvalue = [24, 194]"] ;
57 -> 58 ;
59 [label="gini = 0.494\nsamples = 9\nvalue = [5, 4]"] ;
57 -> 59 ;
60 [label="Duree <= 137.5\ngini = 0.456\nsamples = 250\nvalue = [88, 162]"] ;
56 -> 60 ;
61 [label="gini = 0.498\nsamples = 154\nvalue = [72, 82]"] ;
60 -> 61 ;
62 [label="gini = 0.278\nsamples = 96\nvalue = [16, 80]"] ;
60 -> 62 ;
}